encog,BasicNetwork,java,3.3.0,1,1446840567905
[BASIC]
[BASIC:PARAMS]
[BASIC:NETWORK]
beginTraining=0
connectionLimit=0
contextTargetOffset=106,0,0
contextTargetSize=5,0,0
endTraining=2
hasContext=t
inputCount=12
layerCounts=5,106,13
layerFeedCounts=5,100,12
layerContextCount=0,5,0
layerIndex=0,5,111
output=0.0000008982,0.9984134479,0,0.0013601455,0,0.7696834201,0.5888466234,0.386503988,0.1716836304,0.1250934453,0.1595509428,0.2856489851,0.2973745812,0.236666902,0.3281818735,0.9149966072,0.8562345134,0.108307965,0.9265729241,0.7418568757,0.1010718165,0.7297405167,0.6247780846,0.4552636765,0.5576844991,0.483403866,0.3317955753,0.8704505949,0.6260562384,0.6750917667,0.6967311987,0.659879203,0.1115251784,0.6990239353,0.4621965385,0.6747728158,0.4315690221,0.0988189855,0.1271791698,0.2701747283,0.7444017373,0.4336611235,0.1335525399,0.783143536,0.4178677525,0.5591082144,0.2035074706,0.3551645783,0.0347535604,0.8354063083,0.627294265,0.3618640626,0.9538357878,0.3483264501,0.2322987891,0.7258395191,0.4446576682,0.6157039811,0.3234901778,0.846443293,0.0364542121,0.1584520994,0.2839691111,0.8332937657,0.6781084475,0.6775851871,0.3267847043,0.2292392983,0.6126001914,0.7491939184,0.4954072202,0.6218682011,0.5967013893,0.5638023322,0.6724273069,0.1723782362,0.5378141114,0.3931636286,0.1038247678,0.5869923583,0.8377729377,0.3199758902,0.3442971332,0.5920620308,0.6658477906,0.0682804528,0.4225474382,0.2267441863,0.3168153198,0.1413188515,0.3312522735,0.2998996921,0.6679656264,0.663182714,0.4705977816,0.1718986653,0.9602965209,0.5172357186,0.3944799183,0.6107102716,0.1954784344,0.8242431748,0.563766784,0.1461341333,0.6870290878,1,0.0000008982,0.9984134479,0,0.0013601455,0,0,0,0,0,1,0,0,0,0,1,0,0,1
outputCount=5
weightIndex=0,530,1830
weights=-0.4711608375,-0.2230730515,-1.1942621444,-0.4550308239,-0.8660982354,-0.8744115489,0.2800773114,0.5587163058,0.7920107057,0.2378350507,-0.3562332446,0.4198862566,-0.9610927846,-0.9361341128,0.3968654826,-0.0244979969,0.2428274212,0.6697777775,-0.5604935298,-1.021635517,-0.5460286048,-0.0039115879,-1.1005191846,-0.6617001249,-0.6461330999,-1.135349042,-0.1841541643,0.2590457957,-0.0168254835,-0.8097150044,-0.3405650374,0.2810856475,0.6434783944,0.7297204021,-1.206037624,-0.0915802222,0.7094386382,0.1735345879,-1.418226899,0.5082540872,0.5690897772,0.6719244314,-0.3457690933,0.2352401698,-1.2577659281,-0.2222591365,0.6202687717,-1.0965186785,-1.1564592586,-0.620284027,0.654939075,0.7155928777,-0.5733126168,0.5686544488,-0.8045238107,0.2303513765,0.4592891357,-0.1342007921,-1.0102271528,-0.6543058663,0.4167160581,-1.2733754323,0.7264697688,-0.8508687476,0.3373347923,0.1218040128,-0.3472926838,0.573791753,-0.6822403705,0.7705657917,0.0628769702,0.2083660824,0.2452350811,0.8126219756,-0.8037201972,-1.024297519,0.543560603,-0.7441869276,0.1737279172,-0.7573238958,-0.320456866,-0.4218411434,-0.6083961747,-0.7145991223,0.3074642225,-0.2780613935,-1.1243280348,-0.9162964358,0.2126265305,0.0540668122,-0.1793489189,-0.51779975,-0.1406985977,-0.5398145501,0.2615666874,-0.2794744193,-0.7170415301,0.3447468954,-0.8121300611,-0.5677593615,0.5072053134,1.5509322827,-0.886871289,-0.6314448645,-0.8149199324,-1.1355269503,-0.8391551652,-0.3877693855,0.5274188384,-0.338823742,-0.3265048831,-0.8061397625,-0.9066454307,-0.376815467,0.5423369327,0.3302340569,1.0347045303,0.2029586938,-0.3003499103,0.9863104611,0.9076405989,-0.4102786272,1.0270037642,-0.7485924183,0.1276086535,0.0438757168,-0.0898070968,-0.367501727,0.3037231307,-0.2424200777,0.0199624862,-0.5657175527,-0.8764839966,-0.7448686566,0.0021935938,-0.0172866482,0.8170469266,0.1861010107,-0.1250197337,-0.3449621883,-0.8662664474,0.2821673971,0.5506704181,-0.1687235684,0.4951287499,0.178982612,0.5130052364,-0.5422559527,-0.191680225,-0.6596351543,0.239209389,0.3000645028,0.2445195837,0.7918726996,-0.1046382804,-0.3656606239,0.6412609989,0.1185397099,0.0572545858,-0.8961388157,-0.5213953738,-0.4064363812,-0.9380734526,0.5962710269,0.5351078768,-0.1951343298,0.7922652175,-0.5722356881,0.4713642045,-0.2012410075,0.0621637378,-0.2457406323,0.7362476603,0.9158575921,0.7930102561,0.1516922766,-0.6255965594,0.1128432163,0.8516945996,-0.3734612793,-0.0009530466,-0.2865239333,1.0051649548,0.1527055006,0.4998528491,0.4754801539,-1.1199297707,0.6207734667,-0.6319178182,-0.8518414832,0.0434391174,-0.2305291913,-0.1497546832,0.4884397638,-0.0580258641,0.1789753942,-0.0702928498,0.946297825,0.8015351258,0.0470359001,-1.0106533132,-0.8754065116,-0.145522951,-0.1140301801,-0.7393425094,-0.6449382422,0.5634485362,-0.9320943194,-0.1595557667,-0.1324556982,-0.9335719463,0.3377186175,-1.6524692839,-0.2481673839,-1.4428424378,-0.5562469607,-0.5722360171,-1.5299571454,-0.630967745,-1.3985615753,-1.6926629543,-1.402833156,-1.9229277066,-1.7018965326,-0.8318452678,0.0025209358,-0.8217713599,-0.8908495491,-0.3466993619,-0.6304631789,-1.0470849053,-0.7376413894,-0.1830203097,-0.332789664,-0.4805838965,-0.6753336986,-1.8468353545,-1.5833134368,-1.5264413633,-1.6545177504,-0.6347132549,-1.4549162415,-0.5858753491,-0.9559090597,-0.8459764647,-1.3272366174,-1.1017887817,-1.2014412755,-1.7972562344,-0.0834022983,-0.6340264623,-1.0904113595,-0.4601577308,-0.4093702158,-0.8133793318,-0.7611927231,-0.6428940043,-1.1822196621,-1.7496477394,-0.8208114788,-0.863209848,-1.4060326361,-0.0237149911,-1.7828992057,-1.7523202213,-0.4411748798,-1.1461825434,0.0232074405,-1.1627811638,-0.7046044198,-0.5120376526,-0.107283902,-0.8275645392,-1.1329361162,-0.6414751561,-1.175895617,-0.58401645,-0.2555824698,-1.684450944,-1.4322328361,-1.6044963317,-1.4020299265,-0.8275586226,-1.5079885358,-0.9782730749,-0.7978468989,-0.7766695647,-0.3589631181,-1.612785709,-1.6346502929,-0.4411852463,-1.8314558046,-0.5170088123,-1.7573441629,-0.6857128476,-1.6722782478,-0.4584719804,-0.7951355944,-0.5847707043,-1.2648216606,-1.9206131019,-0.4707467155,-1.589350439,-1.6917018156,-1.8560097284,-1.0961195068,-0.3040607237,-1.2417085074,-1.9228078197,-0.393417563,-0.0077832225,-1.3988657352,-1.3098134832,0.1594582651,-1.0072136023,0.2132137438,-0.3066234647,-0.9267731929,-0.3518857159,-0.8444846068,0.3077528851,-0.1084558667,-0.2444516243,-0.009740806,0.1961288823,0.1345680714,0.9095828127,0.6154189063,-0.1939505626,-0.1371799628,0.4473086511,0.1103161072,-0.4712395817,0.6847100043,0.2074646821,-0.470758819,0.6105763876,-0.9087821339,-0.3369664804,0.5080364248,-0.6194254693,0.059945473,-0.7914800296,-0.2933329305,-0.0862032299,0.3517316172,-0.9296950021,0.2498852567,-0.8768802006,-0.7518588988,0.4852401608,0.0815558918,-0.4642632192,-0.8183961293,-0.0696774263,0.3786214246,-0.3741099449,0.0031843221,-0.5310237672,0.6892675828,-0.6962052784,0.4539264314,-0.229557485,0.3707845751,0.4412154068,-0.4572961741,0.1288806788,0.8304664559,-0.1708100803,0.4983512011,-1.0227312117,0.5917307109,-0.4905359492,0.1832462883,-0.2698991983,0.9033724098,0.572203808,0.0209374884,-0.3215647219,0.4304216631,0.2471392884,0.3482190457,0.7441195314,-0.9913269482,0.231247504,0.1625500723,-0.7543149623,-0.2320613446,0.071094792,-0.8554641898,0.3436601966,0.1858247108,0.3136637117,-0.586404651,0.1461861943,-0.6623250596,-0.731218415,0.5570076633,0.7168142909,-1.0133697989,0.3057958378,-0.0386244925,0.3475354886,0.1252630654,0.7173631362,-0.9429711288,0.3506296457,0.4978860825,0.3065372238,-0.1105036799,0.9706630255,-0.8867790979,0.2648208697,-0.6573545495,0.683454343,-0.9457773872,0.9160332736,0.466474664,-0.1423525603,-0.9594548823,-0.9308667832,-0.2383993812,0.6375635294,-1.2833933934,0.1483682506,-0.1215751031,0.5524134548,-1.1285227526,1.2665934559,0.7509749475,0.4159267823,-2.9265481939,-2.5990384254,0.208122311,-2.3256353739,-2.5362348741,0.3489148093,-1.9164916932,0.4105987514,-0.5312557333,-1.8693225222,0.3505860652,-0.8970597593,0.5824957027,0.0131039761,-0.391069904,0.805899401,-1.0527666985,-0.4586292173,-0.0069981527,0.4155425503,-0.3132124243,-0.8774282502,0.1846210804,0.7751503311,0.4585852418,0.2385005586,-1.3001088326,0.43260662,-0.3434194994,-2.1831938032,-0.799324611,0.2037943999,-2.6396782305,0.6284118094,-1.1536044196,0.0519036784,-0.2512343891,-2.3286439208,-2.2807796906,-1.6318731805,-0.7824236045,-0.6975873474,-0.4591678671,-1.414870636,0.4445920597,-0.4884888447,0.170357531,-0.6867355788,-0.4902373702,-1.0827433199,-2.8331424376,-2.3607884602,-0.4412318987,0.261540653,0.4741347292,-0.8677930773,-0.8887488807,-1.3873420322,-0.9293796524,0.7004479497,-2.9431064024,-0.1830543378,-0.9181651135,0.6327488839,-0.9385480208,-2.1550658706,-1.2102522344,-0.3377024225,-0.3694507252,-1.2084902177,0.879501264,0.037464479,-1.7005043658,0.7037608902,0.2544548237,-0.5337162534,0.1394035311,0.6264450177,0.4951448285,-1.3756938895,0.4112778073,0.5106993234,-2.1272674797,-1.1684516493,-2.4589026145,-1.3834688052,-0.9303059986,-1.0409259604,-0.5081234917,-1.3322723464,-1.057591362,-0.5185226679,0.5521272238,0.5727565546,-2.5333504278,-13.3990861386,0.0097164402,0.1889458144,0.9602775898,16.4477906024,-0.8644574575,-0.7028039961,0.6816590944,0.8833126473,-0.2462896469,0.0262544048,-0.4902565401,0.774829385,-0.3380486062,2.30975329,0.4019279568,0.6554698498,0.5039502007,0.3825376154,-0.377128331,0.5986190822,0.7282727142,3.2842044294,0.4829952975,0.2665610584,-0.629606709,0.2355062138,-2.8943923376,0.0570305517,-0.5987790041,0.2177048246,0.8324770397,-0.6176619225,0.5680240359,-0.1426446898,-4.0016850355,-0.4476788425,-0.2465097847,-0.5838624214,-0.5737062728,0.0023053109,-0.2374888457,0.2644929849,-2.7014331237,0.3141286427,0.768969288,0.93900737,-0.2106686873,-1.0837612222,0.295375958,0.5581757948,-0.7371801498,-0.9104237186,2.5268142128,-0.5102167381,-0.4584498392,14.9714541613,-0.4436400287,0.1865931772,-0.1236670297,0.1123653513,-0.4754083622,-0.1756411513,-0.5941062624,-0.7356627033,-0.8835176691,1.3565370786,0.6493299411,-1.2001581156,15.8518151455,-0.6971351089,-0.1843022685,-0.4986058192,-0.6917197079,-0.6700876883,0.2350155406,-0.9274498547,0.1176727258,-0.6071250228,9.7277805417,0.0772835301,-0.3717506984,2.8904026697,-1.2927724855,-0.3384138206,-0.6043613858,0.1703993514,0.577258098,-0.6691788261,-0.9225793628,-0.1520773155,-1.1666699507,4.0572572206,0.562505675,0.0400240199,-16.0850318031,-1.2437401855,0.6229423692,-0.4454331669,0.5058555754,3.4059938912,-0.1511470706,0.4339018414,-0.4609653933,-1.0253109103,4.6424310168,0.3146881625,-0.3801056246,-16.2206045205,-0.8181853025,-0.6070416588,-0.5063437568,0.116345212,-0.0611864487,-0.6107990704,0.6964060788,0.4253782872,-0.8585960539,-0.2187171802,-0.7752467341,-0.4268243818,-0.7037908352,-1.4153556858,0.103600982,0.0646813793,-0.9882769498,-1.5680149232,0.6308704952,0.6492026921,0.9628022124,-0.1912504754,0.9215068735,0.2875426174,0.4746321414,-15.4994086943,-0.3102172829,0.7703341902,0.3870940027,0.7870501886,-4.1981215796,-0.832709857,0.0554924326,0.6519955828,0.9461352031,-10.122242939,0.0311372147,0.649621894,-14.7225970719,-0.4851393089,-0.6315294554,0.6886433777,-0.1211784298,3.6310721648,0.3460439912,0.9982264545,-0.0342413156,1.5055287481,-9.7290505218,-1.1424614777,0.4178042559,0.8060911974,-0.7786870003,0.5626933926,-0.9349750879,-0.3716413779,-3.9664498331,0.748652691,0.1286321831,-0.0622492302,-1.2738295281,9.9926539114,0.6735915055,-0.4749568953,-15.3380342726,0.415499483,-0.5436039021,-0.4403593688,0.6064819846,-3.3006970396,-0.9846418247,0.9104752237,0.6532423277,1.2978979748,0.0125549442,-0.6776714302,0.6401538709,1.6183234314,0.8481437622,0.7836469881,-0.1449808455,0.3488941704,0.7389750829,-0.3413921898,-0.3577782303,0.6274032967,0.2347817507,-10.3165463706,-0.3120629324,0.4775693368,-4.5246962529,-0.5190514933,-0.0812572105,-0.4137587912,-0.9054815089,-0.1922937974,0.0791391201,0.6089361233,-0.2704343055,-1.7094050144,10.894187351,1.1154073389,0.4172290174,-15.9809705074,-0.1830012561,0.3085180942,-0.7979618677,0.1461796113,-1.6585144691,-0.2089043275,-0.7989267731,0.0588292585,0.0605658184,-3.8739480363,-0.1044087371,0.7881547879,16.389879648,-0.0644912719,0.5476645367,0.5189327125,0.439440638,4.2603266762,0.6426680815,0.319337532,0.2419767799,-0.5156554107,0.2060931976,0.1188855481,0.545212817,-16.225376306,0.3663463719,0.7059092985,-0.5110517226,-0.4267119175,-6.2340088662,-0.458430511,-0.4198521279,-0.0092276001,-0.5031988413,3.4102281427,0.7765327532,0.7446851512,14.5310449768,-0.1296701541,0.3458086229,0.8809818975,-0.6821703158,0.3777510952,0.8246855707,0.8333395947,0.835439858,0.4342251968,-8.2475493774,0.1373016123,0.4855056773,1.7182147201,0.4667769916,-0.2946686561,0.8177605685,-0.454026846,-2.0164765924,-0.6211273075,-0.3167868319,-0.4521728242,0.4694403813,0.215506683,-0.3758860419,-0.0760219665,-2.7306437174,-0.9528929821,0.6391939407,0.2289779753,0.2131358975,0.8514635298,-0.6310532026,-0.8478641114,-0.177089521,-0.3265778548,10.1727585696,0.3821034003,-0.6010075803,15.6066299993,0.5817159633,0.5443603265,-0.4215559425,0.6991952129,-2.7068580844,0.1258983248,-0.2257655742,-0.1372072399,1.9484834727,-7.8887818187,-0.8581012363,-0.7021191455,-5.8391988988,-0.2549176885,0.4979994145,-0.1201544641,0.9045005643,-0.4121974322,-0.4516546777,-0.9068694529,0.8482689229,-0.5578614478,8.7874176366,1.9008156933,0.1577444721,0.2579463014,-0.3044420273,0.9026077529,-0.0366740393,-0.5941978324,0.1561113481,0.667030568,-0.5140354695,0.8222224635,0.3479811455,-3.4656293672,-0.2753639977,0.992084464,1.1929635666,-0.0594026303,-0.3187303192,-0.7604213485,0.8546897749,-1.9101859915,0.8409228331,-0.6663687421,0.6090559911,0.4676134409,3.3110380381,0.1158979348,-0.4951130793,14.482760828,-0.6591045445,0.8501610158,0.7795698738,0.7073556543,1.3613975481,0.6647770549,0.7557205132,0.9780997548,-0.2165897882,2.7729157603,-0.4922354509,0.1663869866,-2.6340177434,0.1179490447,-0.5667421906,-0.5938862458,-0.9661153406,0.7702602728,-0.6766927694,0.1387552039,0.6142480337,-1.659444343,9.9315158821,1.0423934163,0.5401068268,0.5501376417,-0.6291881179,0.2365421287,-0.9289852304,0.7204298406,3.8495861979,0.9562352617,0.0736435171,0.3246643786,0.1505679478,-10.7784888511,-0.3981830196,-0.0137816188,-0.6800447233,-1.3238393185,-0.3744793444,-0.5425935637,0.4533720145,-4.2047247972,0.7608750301,-0.1644953105,-0.176498519,-1.1171282759,3.1754626194,0.3056909218,0.5056751899,3.2721472675,-0.6472248547,-0.7214060935,-0.7229013651,0.7685320806,-0.035775266,0.4749726523,0.3699542165,0.9910137176,0.2220298021,-9.5567306438,-0.2915558617,-0.246241606,15.1162458587,-0.692648911,-0.031129608,-0.5501013605,0.4731241433,4.9907756986,-0.5710764177,-0.5668030773,-0.027469679,0.2623623139,-9.2956762836,-0.562866587,-1.005148296,0.4294420408,-0.5135783929,-0.4920231335,-0.0985493066,0.614478178,0.7098800289,0.275943776,-0.8022640701,0.1959034391,-2.1625822386,2.8844529557,0.5889451731,-0.699953186,-14.6603845908,0.3516638055,-0.1627786045,-0.2118084695,-0.2658120374,3.9870998631,0.599854921,-0.8222857948,0.7660823192,-2.5690746962,0.8212102212,0.1246816828,0.8673549586,14.650167493,0.0012976299,-0.6818379854,0.1308430384,-0.7932772517,-0.6357190423,-0.3395289195,0.3130653254,-0.0748340435,-0.296415032,1.4866890669,0.7217009493,0.0913660234,-0.8986011839,-0.3135376659,-0.6024232566,0.6207057163,0.5278548361,0.1752762411,0.3662625278,0.1939718912,-0.273396415,1.1126704816,-11.1004981466,-0.3552117565,-0.5570832065,-15.2691575866,0.6837112839,0.4400183794,0.7177614377,-0.6100854354,0.8914978807,-0.3629314807,-0.7507735428,-0.9613254617,0.963910593,-8.7188389313,-1.3202701441,-0.6139062707,-16.0433302177,-1.1036864289,0.7977425978,0.1203215978,0.2020173241,0.3090158439,-0.7053813147,-0.6628706383,-0.3381634157,-1.2448262449,3.916911523,1.0384311795,-0.8393832721,2.407120337,0.779998219,-0.0966402033,0.1946241849,-0.2771744649,-4.4094951142,0.7362095327,-0.5078227942,-0.2591499632,1.9384268795,-5.0330683637,-1.3168998397,-0.2594352428,-15.6344929596,-0.9534954916,1.0189228152,0.1995171796,0.7156899705,3.7825873573,-0.7079631786,-0.363885082,-0.7474825626,-0.2997530495,-2.6265291792,-2.0165334417,-0.7319438936,2.160441367,-0.4371414395,-0.6152206975,-0.8440971173,-0.2551670176,0.9503362212,-0.3182435032,-0.6004468176,0.9608774886,0.1767064147,-9.2703325361,-1.9907222318,0.3217947816,-6.0084298357,-0.7750112698,-0.3006272262,-0.2578226358,0.077133608,1.7269033688,0.6063656418,-0.8333424631,0.496718236,-1.1773829284,9.6739261782,1.0284426301,-0.2786401427,2.8110402044,-0.0250286311,-0.579750512,0.1738094163,-0.5972720531,0.5848536246,0.0458226409,-0.6897824354,0.1514769311,0.5482785142,-4.4865908935,0.3008938423,-0.541619802,-2.4873720997,0.2863863522,0.611856594,-0.1455936609,-0.6864289377,0.2119999675,-0.2555264809,0.1983011172,-0.964695987,-2.0259772771,9.5230675842,1.9692773258,-0.6209352863,-6.0713569911,-0.691379977,0.6303166584,-0.923383867,0.9835816797,-4.2447106124,-0.4281686028,0.1613484212,0.7487326647,1.6274239941,0.3881669279,-0.0263832872,-0.9470815806,-15.3667991538,-0.7852957828,0.6749751123,0.4509603577,-0.3759499105,-3.3728503011,0.0743551635,-0.4654099911,-0.4106641251,0.8584876467,0.6376453247,-0.1158173566,0.0548413502,-16.0318327858,0.0230310809,-0.981526758,-0.2705555824,-0.9326626658,-0.306090883,0.8523527813,-0.3748142261,0.5152391631,0.4224425421,-0.7214008435,0.9316437777,-0.0576349816,-0.7797342101,0.5719037341,-0.3455546287,-0.1634342404,-0.061361682,-3.039319753,0.7718363483,-0.9286786924,-0.3286961434,3.0322856632,-2.1934773018,-0.3836227821,0.0915907405,-5.758187092,0.8346530451,0.7397737366,-0.6249603582,0.1401822594,-3.4396227656,-0.389866509,0.5088075089,0.6400144282,0.0860588901,9.744828561,3.83546356,-0.8583416305,-4.8861862937,-1.1987367269,-0.4080166271,0.2297105954,0.7443587771,-6.2039580671,-0.5304807515,-0.3375486764,-0.3444922465,-1.6347410958,10.0227097276,1.4371199626,-0.3194620412,-2.3234009276,0.8324073223,0.1264128478,0.8058265341,0.6047988613,0.2335448286,0.0233520009,0.4301033371,-0.0817823499,1.0545729816,-9.2507265032,-0.7184790765,-0.6792721823,0.2703890138,-0.6815536025,-0.4416506897,-0.755489247,0.591533289,0.272821612,-0.9702597822,-0.9232888256,-0.5429704718,-1.3859453283,1.456807332,0.4060612923,0.556484063,0.1725352611,-0.0851006282,0.2088769771,0.1766588814,-0.1235602415,-0.9863493182,0.6566123547,0.15901799,0.9376527608,1.0506952143,-9.5198002141,-0.0886356086,-0.4412198851,0.6925741741,0.6372987176,0.1705415823,-0.3000408834,0.8999176286,0.3568145434,0.0233116243,-0.1689738417,-0.454638405,-1.5450242265,4.4073061383,0.2096830604,-0.1071397954,0.537748462,1.0493381411,0.6435664669,0.8439294825,0.1943130122,-0.2098614851,-0.0974825441,-0.8099575273,0.3568953622,0.5577477658,0.6192024609,0.7551131843,0.9422630782,-0.9665447406,-0.6348846454,0.3996974433,0.0839050866,0.1618906606,0.424435224,0.6257276579,0.1840968628,-0.4112517312,-2.9262459246,8.4419394957,1.3501291592,-0.5444358,-0.7023311299,-0.6382866692,0.8439386619,0.2938506391,0.0062620354,3.7139848995,-0.8657082152,-0.8524235273,0.3730328685,-1.0297622734,1.8193200363,-0.3085426721,-0.6649652895,-16.2932865491,-0.1440925915,-0.2415542937,-0.2435061737,-0.9510059666,-15.5470214711,-0.945470549,-0.7725401921,-0.3152919949,-0.8515172745,0.9520485048,-0.5834884288,0.8745550029,-14.6449780826,-0.1149394235,-0.3999564922,0.4828252349,0.5408938489,-2.6599325734,0.5777711721,-0.8666405207,-0.0203068806,0.8049271793,0.8186528635,-0.4741462441,0.2584201844,-1.9651554225,0.287773569,1.0183865349,-0.871804168,-0.1804876799,-4.2850932314,0.7160601177,-0.5199470887,-0.7392699135,0.5302922359,8.983381175,1.8506630479,0.389591126,0.8637906284,-0.6386418752,-1.0606797148,-0.4291526551,-0.6098542271,-0.8405542782,0.1813923753,0.0426113711,-0.1962311896,0.7683735738,-9.541986455,-0.3599498767,0.5906613301,1.6190986872,-0.0506706798,-0.7004505467,-0.8885834009,0.2316830673,-3.7039453135,-0.7584119287,-0.3254656986,0.8619868936,-1.320857632,10.0799974763,1.5652212565,0.3508852613,-14.8674703035,0.4020399617,-0.3274916446,-1.0043250666,-0.5624288513,1.0006311588,-0.1910074877,-0.3504871661,0.1438928696,0.0327719252,-2.3427201053,0.4365615984,-0.6679723564,-4.7076209858,0.2684994106,0.0388252159,-0.3599929858,-0.4510570077,-4.211274297,0.5868765507,-0.833680291,-0.6695625116,-0.0323404179,8.3038823219,1.6480421455,0.9358620758,-14.7983797166,0.8247842699,0.6943673846,-0.0515683366,0.9479306631,-0.3262134004,0.8746086657,-0.7601513652,-0.0116583093,-0.1526118364,2.6947228493,0.9222071036,0.293208369,0.7772923378,0.2736229827,0.302460221,-0.5559205414,-0.4352375483,14.6793369463,0.0215410809,0.8285507525,0.7919174585,0.7911407108,-3.160822175,-0.2224756315,-0.3659362985,2.0157763684,0.2637118063,-0.9967016712,0.9000870723,0.7543205545,-4.1029057167,-0.6234114862,0.7205735893,-0.129363436,-0.5108444075,-0.7574884938,0.3946255504,0.2578117187,-14.6763032705,1.0707905154,-0.5879284149,0.6758159092,-0.2750604736,0.6327965888,0.6006763749,-0.7046167307,0.4686396704,1.1526744259,-2.7022547233,0.4140769121,-0.4706187287,-1.6009772863,0.5934857038,0.7479159347,-0.3828900007,-0.7911863594,-1.7471447543,-0.2079784503,-0.7220923177,0.8740029772,0.8836157665,-9.5685839113,-0.456177947,0.1787407291,-2.2169254179,0.1063208875,0.0190211986,-0.8805269258,0.6522045039,2.9139890121,0.7700215179,0.1274539491,0.4354298363,0.3887712828,-9.37864732,-1.8819533991,-0.3160949188,16.2963163902,0.4103059427,0.7247221058,-0.8149765506,-0.1626483612,0.2914880245,-0.980729799,0.332373833,-0.7435139096,-0.8462946892,3.1212786836,0.4308853816,-0.5751777606,-0.6652227449,-0.3043658379,-0.2305154558,-0.593983454,0.7658985239,7.0822377142,0.8232480365,-0.8840469698,0.0608767531,0.2614606847,-9.9481001811,-2.071474496,-0.8612514645,-14.8270774037,0.3049174525,-0.0010142285,0.7486898378,0.5110503543,0.2251068851,0.0214200993,-0.993445661,-0.7917952029,0.0169040581,-1.6417887348,-1.0775255661,-0.9584552147,-4.6208943106,-1.5830680093,-0.2913298059,-0.0866293077,-0.2011068426,2.6208711736,-0.2521507495,-0.083917382,-0.5748739151,-1.6866072038,2.180948085,-0.3197160846,-0.3821386222,-4.2995753345,-0.0685744896,-0.2129076418,0.4088743732,0.1205014482,-2.7562955293,0.3953359747,0.9570803373,-0.0111485759,0.1550335242,2.7872310593,1.0058099168,0.0692563834,0.8289752185,-0.3641362712,-0.877353556,0.0849742436,0.6487673099,-0.1844350644,0.6719647249,0.8929984656,0.9879873293,1.0112255152,-0.2942700207,0.2401883119,-0.0184577919,-14.7170379664,-0.6347075836,0.5294300952,0.0664156533,-0.8298646127,-0.0740853359,-0.1489093339,0.2976969682,-0.6293744865,0.5222055391,-3.6490393135,0.2932207553,-0.4427847797,14.9414003208,-0.436076635,0.0148877452,0.0979233407,0.2130815495,-0.6113160618,-0.1025088809,0.9551527332,-0.9477474129,-0.0266594132,-9.141517889,-1.4838133505,-0.8248342318,1.583424089,0.7435107561,-0.2707138817,-0.3692230861,-0.6177040278,0.6879180338,-0.1921476281,0.5952639748,0.8827722711,1.2183737792,-9.813153531,-1.8670755517,-0.2095084389,-16.3824800559,-1.2981709046,-0.7601023174,0.0533142721,0.1937107755,-2.8228820329,0.2919032658,-0.3858713244,0.4123558895,-0.075402644,-0.2395285615,0.0431445751,0.5853708924,1.5619587136,0.4480140668,-0.6813900204,-0.6808684577,-0.1031291718,-0.6517256335,0.4676550805,-0.0732331422,-0.8963463202,-1.9207068424,9.6087756365,1.7342534701,-0.5997692395,1.5793881212,-0.7413376928,-0.0407907406,-0.5363103195,-0.4479341647,-0.465913468,-0.9060160001,-0.9096664138,0.7970811377,0.3892537569,-10.6438397923,-0.7741315084,-0.2390822388,-1.9323194561,-0.2203325609,0.3155718726,0.3940117233,-0.839282158,0.292186953,0.4372604835,0.1307578589,-0.0789009247,0.3306082908,9.7522128207,1.2052476932,-0.7245979633,14.8373508839,0.3078343738,0.5375463104,0.4402816309,0.0906891343,0.1493605211,0.3803325145,0.7390865458,0.8654341628,-0.7894800832,8.5401482408,0.4678980723,-0.0730940029,0.4054161089,-1.0562466468,-0.9434948467,-0.3867643718,-0.4345521855,-0.6027369619,-0.2258499261,-0.1271271628,-0.2767488669,-1.8282829694,1.9958850875,-0.2463557085,0.4483162462,14.513037995,0.1918441163,-0.2108704752,0.4659403631,-0.3777808295,-0.1795977369,-0.7397159914,0.7017129404,0.907212972,-1.0378312411,2.4072134472,0.1985082222,0.6975597346,-5.019400357,-0.4947086541,0.6922816537,0.0172314503,-0.2683829409,-4.8988969083,0.8899382157,-0.1496168575,0.058686649,-0.3554568647,11.1767858623,0.400043463,-0.229538857,5.4251823657,1.0278854367,0.2709935164,0.1176938975,0.3102923704,-1.2129145177,0.1368973149,0.8892922877,0.2878045159,1.3102185392,-9.6769768265,-1.6253095906,-0.9069507655,0.6946203034,-0.10693049,-0.8530066225,-0.9056880388,0.4971613062,-0.3764232995,0.7190991094,0.1001505347,-0.4102913234,-0.1524334445,4.0718769975,1.131694626,0.3182201439,-14.7708243371,-0.6306082243,0.6899691776,-0.4273893049,0.3462164887,-4.0899812446,0.0745747577,0.5148813093,-0.0806507572,0.0584559952,3.1314187167,-0.7894442838,-0.5282177018,-15.1636569646,-0.019364819,-0.5681545822,-0.5732803229,-0.5497481095,-1.0199921601,-0.9599814898,-0.7688949518,-0.7482275217,-0.2146430583,8.8970210781,1.9043736405,-0.8134423161,-15.2101152985,-0.183350094,0.0186105516,0.1787299176,0.7088459206,-3.0290546562,-0.9266767399,-0.4658664737,-0.8646777926,2.3699044684,-4.2825189888,-1.2211731693,0.1171742341,-15.195348165,0.1754697121,0.9223444762,-0.3515258835,0.0910422124,-14.8875186901,-0.4581762539,-0.7170253352,-0.4210603616,-0.0131925035,0.4107474698,0.4001537752,-0.0064819074,-0.2583869264,0.5946422835,0.7972064512,-0.0589660994,-0.8331934019,-0.2256612694,-0.6285094088,0.7467862793,0.5548776131,0.9723500552,-3.1024827901,-0.428476022,-0.5531142185,-2.0307412866,-0.8171361844,-0.771709544,0.6709379378,0.3651702274,1.9540032984,-0.1329833228,-0.3793575599,-0.9335894239,-0.8618797691,8.8255489869,1.7411255263,0.9283433038,0.7772507941,0.5003569322,0.0944925854,-0.3320336459,-0.2065205821,3.3957808042,0.641903555,-0.0035592433,-0.7880095298,-0.6580726429,-1.2164875766,0.2071847058,-0.550766984,-16.1412844464,-0.4987388812,-0.7940832253,-0.8816829141,0.9886675749,-7.2614949959,-0.2746044942,-0.2606364153,-0.9463589913,-0.4207630185,10.3343844777,1.8719199988,0.9706115804,0.4099325953,0.1094156181,-0.8890866523,-0.9149377971,-0.2401362102,8.5157215302,-0.1230808912,-0.583622502,0.6025393406,0.116421527,-4.0014278837,-0.7135921785,0.3947402744,-2.9862358221,-0.3081822782,-0.397487525,0.1787821853,0.0699584294,-1.4333028266,0.2196476109,0.9048885431,0.7906250673,-0.9062747825,9.4186646259,1.8109290945,-0.9433072708,1.6508295785,-0.7636081167,-0.2863914678,-0.9736129836,0.4179224475,-0.1997346689,-0.9244801871,-0.7215025243,-0.0407671697,-0.331392384,9.3212938856,0.3603279497,0.6852681363
biasActivation=0,1,1
[BASIC:ACTIVATION]
"org.encog.engine.network.activation.ActivationSigmoid"
"org.encog.engine.network.activation.ActivationSigmoid"
"org.encog.engine.network.activation.ActivationLinear"
